%YAML:1.0
---
stop_sign_hog_detector: !!opencv-object-detector-hog
   winSize: [ 64, 64 ]
   blockSize: [ 16, 16 ]
   blockStride: [ 8, 8 ]
   cellSize: [ 8, 8 ]
   nbins: 9
   derivAperture: 1
   winSigma: 4.
   histogramNormType: 0
   L2HysThreshold: 0.20000000000000001
   gammaCorrection: 1
   nlevels: 64
   signedGradient: 0
   SVMDetector: [ -0.0201352052, -0.00457552914, -0.00920379441,
       -0.000219545924, -0.0335672908, 0.00585384807, -0.00135501777,
       0.00226074248, -0.0205752179, -0.0116557768, -0.00557690393,
       -0.0171790328, 0.00189267821, -0.0163410697, 0.00374093698,
       0.000444186851, 0.0165082067, 0.00282049528, -0.0130442409,
       -0.00331011508, 0.00707823597, 0.014420907, -0.0185729377,
       0.0101460777, -0.00758775929, -0.00407744013, -0.00531928521,
       0.0095494492, 0.0283326041, 0.00491661858, 0.023109043,
       -0.011116337, 0.0227814205, 0.0117631722, 0.0173727386,
       0.0177802611, -0.0119889174, -0.00897359941, -0.0196198709,
       -0.00454536732, -0.00899272971, -0.00388633064, -0.0138771385,
       0.00107227836, -0.00285901385, -0.0107443361, -0.00101299188,
       -0.00871197041, 0.017619051, -0.021291798, -0.00255159778,
       -0.0296641551, -0.0175845809, -0.00900549721, -0.0150098372,
       0.0176507905, 0.00816505309, 0.00924861059, -0.00348046306,
       0.00777086616, -0.00847581495, -0.0021900381, -0.00386232557,
       0.0114249326, 0.0270858966, 0.0176007748, 0.0292810984,
       0.00847394764, 0.000909811177, -0.0234574825, -0.0235267933,
       0.00626374641, -0.0137208281, -0.0128607964, -0.0176214837,
       6.29873757e-05, -0.0162365921, -0.00572500145, -0.0254784897,
       -0.0203540474, -0.00604583789, 0.00358163705, -0.00588846579,
       -0.0123154018, 0.00653996691, -0.0183822401, 0.0173671898,
       -0.0208957382, -0.0132167395, 0.00358462334, 0.0137107847,
       0.00689714076, 0.0018272493, 0.00375179504, -0.00050129497,
       -0.00524781179, -0.015950609, -0.0169721618, 0.0251191985,
       0.023110522, 0.0032741311, -0.0115908822, 0.0133068981,
       -0.00668850308, 0.0195592977, -0.0117196841, -0.00161217607,
       0.032928858, 0.0048982203, 0.000262716028, -0.00984917395,
       0.00745254895, -0.00949796103, 0.00338616129, -0.0210553799,
       -0.00867110491, -0.00236040656, -0.00327351736, 0.000919454731,
       -0.017911071, 0.020700356, -0.00380296097, 0.0142978951,
       -0.0139473956, -0.00810960121, -0.00792544894, 0.0107229576,
       -0.00649104547, -0.0218951181, 0.00630724337, 0.00545063103,
       0.0121551203, 0.00695577543, 0.0180006549, 0.00749099301,
       0.01078567, -0.0021950826, -0.00977286976, 0.0298811775,
       -0.0122042578, 0.0135118486, 0.00723398849, 0.0112240808,
       0.0115888231, 0.00560759008, 0.00598819274, 0.000838946784,
       0.0155634861, 0.00608617626, 0.0119052799, -0.0112313414,
       -0.0159755144, -0.00493449764, -6.38129932e-05, -0.00668995129,
       -0.0130728418, 0.00379639841, -0.00119824812, 0.00549840415,
       -0.00802430138, -0.00011195337, -0.00567530142, 0.00158669939,
       0.000423683785, 0.0109851174, 0.017072605, -0.00502383616,
       0.0026335225, -0.00511429366, -0.000806308235, -0.00100963889,
       -0.0140722943, 0.000550732191, -0.00388676231, 0.00607516291,
       -0.0131962979, -0.000477518333, 0.012328757, -0.00685981009,
       -0.014710349, -0.00861314125, -0.0115520861, -0.0196816996,
       0.0132585485, 0.00420267694, 0.0114861093, 0.0053114281,
       0.00503412308, -0.0100699728, -0.00411176076, -0.012227024,
       -0.0289178789, 0.00404007128, 0.00127806654, -0.00222608447,
       -0.0102549065, -0.0105805295, -0.0138479723, -0.00254720566,
       1.89469829e-05, -0.018742552, 0.0130188828, -0.0082475096,
       -0.000844519294, 0.0250365511, 0.014280363, -0.00902708061,
       -0.00986940786, -0.00985190831, -0.0232111234, 0.00436338084,
       -0.00980087742, -0.00977431424, 0.0101628825, 0.0125651145,
       -0.0118185254, -0.00125686894, -0.00276842271, -0.0100934841,
       0.010994927, -0.0019456161, 0.00286475872, -0.00284219952,
       -0.00626769848, -0.00868485775, -0.0218351576, -0.00294113555,
       0.00220225169, 0.00341484789, -0.0230214614, 0.00843165442,
       -0.0169477053, -0.0101050725, -0.0164791644, 0.0133587783,
       0.00389311602, -0.00669637788, 0.0165185574, 0.00465905014,
       0.00597813958, 0.0169412233, 0.0269176755, 0.0159035213,
       -0.0208061263, 0.0138789732, 0.0177360121, 0.0117214546,
       -0.0123682357, 0.020427933, -0.0156042753, 0.00546227116,
       -0.0176631063, -0.0124709187, -0.0115436008, -0.00691503333,
       -0.000376727839, -0.0143459262, -0.000276759674, -0.0136214821,
       -0.0193331968, -0.00974936783, -0.00918507297, 0.01022455,
       0.0103729432, -0.00708553614, -0.0271115527, 0.00434711622,
       -0.00920760538, -0.0160349365, -0.00452174293, 0.00611655135,
       0.0107625285, 0.00748724909, 0.0023764323, 0.0073239659,
       -0.00208399794, -0.00302639394, -0.00347253028, 0.00127273821,
       0.00463023921, 0.0258860588, 0.022280965, 0.0144633558,
       -0.00598482043, 0.00105615018, -0.0110929161, 0.00547270523,
       0.00907412358, -0.0260863341, 0.00551701849, 0.0111389598,
       -0.0132222464, -0.000345869339, -0.00168044039, -0.00586481858,
       -0.0060441345, -0.0147785777, -0.009763157, -0.00631063525,
       0.00682720542, -0.00280898297, 0.0145045528, -0.0025319499,
       -0.00718482072, -0.0141991144, -0.0183515958, -0.00542087387,
       -0.00416388968, -0.00383411953, -0.010430648, 0.0034726297,
       -0.00138508016, -0.00642113062, 0.000581767934, 0.00690715248,
       0.00419563288, 0.0172668956, 0.0180588886, -0.00358601147,
       0.0129413577, 0.00561246229, 0.0235578157, 0.00613243226,
       0.00392704224, -0.0104886284, -0.00868189242, -0.00556147518,
       -0.0182420593, -0.00156150409, -0.00824507885, -0.00587202236,
       -0.0151402969, -0.00462284079, 0.00732343039, -0.00989910495,
       -0.00194016064, 0.0103702387, 0.00512853544, -0.0056565539,
       0.00806899369, -0.000439020543, 0.0154771851, -0.00513103139,
       0.012101233, 0.00598300155, -0.00443182886, 0.0171162989,
       -0.00288344244, 0.018800538, -0.00775964931, -0.0087314304,
       0.0147555452, -0.00100321753, 0.0274185333, 0.0119574713,
       0.0164541602, 0.00356511259, 0.0225674547, 0.00357240741,
       0.0261670854, 0.00308581814, -0.0156184854, -0.0106411893,
       -0.00664632814, -0.00658412278, -0.018065555, 0.0143574933,
       0.00312094507, -0.00146906835, 0.00491626142, -0.0153327193,
       -0.00751917297, 0.00659832591, -0.0108924527, -0.00945455488,
       0.00302265445, 0.0120153362, 0.0100190854, 0.0164371002,
       -0.0177363679, 0.00781683624, -0.000797450659, 0.00183110335,
       -0.00693137432, 0.0323596857, 0.0135812918, 0.0188556351,
       0.00962899625, -0.00765209645, 0.0109950993, 0.0170036275,
       -0.00461879466, 0.00367818144, 0.0238950569, -0.00197144528,
       0.00415644422, 0.00726662111, -0.00393272424, 0.00300645176,
       0.00053185178, 0.00512539642, -0.0120350337, 0.00942376722,
       0.0107566612, 0.00970750395, -0.0117281945, -0.0016009598,
       -0.00476394361, -0.00646778941, -0.00744751422, -0.00269691367,
       0.00444315467, -0.0131782768, -0.0173230041, 0.0246819593,
       0.000485502125, 0.0162940063, -0.00389260729, 0.0124382023,
       0.000578073959, 0.0212195441, 0.00418050587, 0.0209797081,
       0.00206900714, -0.013978892, -0.0050350423, -0.00815052725,
       -0.00360948616, -0.0117677301, -0.000302981847, -0.00741401594,
       0.00360483071, -0.00973292161, -0.00612763548, -0.0117258802,
       -0.00244526216, -0.011098803, 0.00599961774, 0.0264350176,
       0.000330669835, -0.0162387211, -0.00497361878, -0.0108967982,
       -0.00998668838, -0.0145393396, -0.00893597584, -0.0155596836,
       0.00865648221, 0.0116435252, -0.00235867104, 0.00573820388,
       0.0055036163, 0.00573199429, 0.00589977438, -0.00556678744,
       -0.00274988031, 0.0152407298, -0.0109123681, -0.00499851583,
       0.00224726973, 0.0105960891, 0.00479919696, -0.0021824115,
       -0.0134243602, -0.0190959759, 0.0215556975, 0.00508115161,
       0.00127890473, -0.000605451933, -0.00617089821, -0.00663262652,
       -0.00503509911, 0.00591037655, -0.00548219914, -0.00350428349,
       0.00405299664, -0.00309095089, -0.0116402023, 0.00402615219,
       0.00401930697, 0.0024138845, -0.0134570831, 0.0136506436,
       -0.0198401809, -0.00346904411, -0.02329625, 0.00276093627,
       0.00434271852, 0.00433390168, 0.00277360273, -0.00758631434,
       -0.00265512452, 0.00606725179, 0.0189996604, 0.0233629551,
       0.00407011574, -0.00394364959, -0.00815619808, 0.00304514705,
       -0.0338999927, 0.0186255164, -0.00797768962, 0.00531788031,
       0.000359075377, -0.0103643974, -0.00287463679, 0.0076895901,
       -0.00399471866, 0.0061947573, -0.0158003792, -0.0130133247,
       -0.00675952435, -0.0244006421, -0.0062348363, -0.00475737592,
       0.00140888628, 0.00942835677, 0.0043317019, -0.013942562,
       -0.0198294315, 0.00158872618, -0.00956952386, -0.00377745484,
       0.00561998319, -0.0057484624, -0.00342991971, -0.00956276245,
       -0.0157982968, -0.014075214, 0.00596502563, -0.0139604332,
       0.0116250273, 0.0206906982, 0.0192655437, 0.0163099431,
       0.0175157655, -0.00272650039, 0.00373845664, 0.00650898833,
       0.00274100481, -0.00303389621, 0.00118574593, 0.00424761744,
       -0.0162544455, 0.00154339662, -0.0104971137, -0.0184640586,
       -0.00517547736, -0.0027455918, 0.00288050133, 0.018469654,
       0.024489766, -0.0140413549, 0.00338550191, -0.0205100421,
       -0.00957428664, -0.0102979066, -0.00221325294, -0.00148978201,
       0.00543421786, -0.000356129924, -0.0102407699, 0.0234730747,
       -0.000793699059, -0.00444333861, -0.000128800428, -0.00593573833,
       0.0152220726, 0.0354818963, 0.0329866149, 0.00269696093,
       0.0187458657, -0.0113951582, 0.00431044307, -0.0128564211,
       0.00661602803, -0.00630091038, 0.0060596196, 0.00143859244,
       -0.0178930443, 0.00505352486, -0.0122021874, 0.0122868773,
       -0.00683926139, -0.00560899312, 0.00493829791, -0.00473437225,
       0.00912065711, -0.0128356228, 5.14030762e-05, -0.000849220669,
       0.0249285325, -0.00387664931, 0.00428749993, 0.00681947637,
       0.0105249826, 0.0187667776, -0.00748696085, 0.0235692095,
       -0.0116741862, 0.0109382337, -0.0200286005, 0.00739598833,
       0.0204441771, 0.00443762029, 0.02730144, 0.00818712544,
       0.00607087044, 0.00982526131, 0.0251370259, -0.0122488355,
       0.0114343101, 0.0139864497, -0.0175499637, -0.00215718267,
       -0.0123723783, 0.000799110683, 0.00216447096, 0.0235804468,
       -0.00730069866, 0.0105247628, 0.0100014573, -0.0225713477,
       0.00314497249, 0.00296812784, 0.0115448935, -0.00857572164,
       0.00779826008, -0.0208757184, -0.0135176629, 0.0152188344,
       -0.00566007663, 0.0265377741, 0.00836795475, 0.0149281416,
       0.00819445495, 0.00869504642, -0.0209828317, 0.012978279,
       0.00993183814, -0.015177086, 0.00337917684, 0.00220807921,
       -0.00559902377, 0.00224716985, 0.005712579, -0.0166349467,
       0.00520237396, 0.012981642, -0.00902026612, 0.00645986805,
       -0.00917544682, 0.0225478429, -0.0114196064, 0.014804272,
       -0.00185925886, 0.0226245355, -0.0161037594, -0.0182039458,
       -0.0142528238, -0.0031692409, 0.00826903153, -0.0192344114,
       -0.00567235937, -5.06845827e-05, -0.00589855434, 0.0168288033,
       0.00803376548, 0.0154646877, -0.00818066485, 0.0237131119,
       -0.00130619097, 0.0225632619, -0.000154220645, 0.0223266128,
       -0.0177569576, -0.00384811638, -0.00724822935, -0.0027324378,
       -0.000854523212, -0.0120445732, 0.00356620015, 0.000352166418,
       -0.00535633927, 0.0033009476, -0.00415667892, -0.00799630489,
       0.00933555048, 0.013375856, 0.00182046415, 0.0166256148,
       -0.00293274224, 0.00169246178, -0.00705102179, -0.000834730337,
       -0.00883840024, -0.00162519165, -0.0112574399, -0.011102139,
       0.00907009281, -0.00345768617, -0.00895690918, -0.00411649654,
       -0.00474304194, -0.00203911006, 0.00700554531, 0.00884211808,
       0.00648476416, 0.0176689047, 0.0129054561, 0.017143324,
       -0.00587274972, 0.00959517621, -0.00939401146, -0.00452372339,
       0.00148273318, 0.000976029027, 0.000577233441, 0.00286645489,
       -0.00134380348, -0.00984462816, 0.000106323962, 0.000749897503,
       0.00664507737, 0.0158920791, -0.00593112782, 0.00674173795,
       0.00282901968, -0.00402501412, -0.00434419047, -0.00506523857,
       -0.00186286808, 0.0148771936, 0.0127783418, 0.00425393414,
       -0.00485124206, -0.00699671917, -0.00297446386, 0.00386130251,
       0.0140724666, 0.00830451027, 0.0139753008, 0.025868604,
       0.00713124825, 0.00391605031, 0.00785004068, 0.00730438996,
       0.0110321883, 0.00660127029, -0.0174555779, 0.0110700279,
       0.0151774334, 0.0030562866, -0.0139962286, 0.00018241108,
       0.0238834061, -0.00684532849, -0.00644313684, -0.0281878114,
       -0.0123358872, 0.00532030361, -0.010607183, -0.0102983508,
       0.00833298732, -0.0120566674, -0.0124036288, -0.0114759244,
       -0.00137902168, -0.00275211246, 0.0283787977, -0.00199153577,
       -0.0024181176, -0.000556461979, -0.0136440769, -0.00842727069,
       0.011858128, -0.012714983, -0.0105522191, 0.000362704362,
       -0.00957631413, -0.027188953, -0.00585257262, -0.00729070371,
       -0.011043394, 0.00113223447, -0.000823141367, -0.00204332103,
       0.0133013828, -0.00170860218, -0.0061539067, -0.0100537818,
       -0.0103543289, -0.0116193118, -0.0124423532, -0.00426581828,
       -0.0109812841, 0.0115657859, -0.00576696172, -0.00476657785,
       -0.00548918266, -0.0133346152, 0.00725854794, 0.00489577604,
       0.0241818205, -0.0154639054, 0.0276095662, -0.00805905089,
       0.0114432108, 0.000351247407, 0.0109803136, -0.0149158034,
       -0.00551413698, -0.00202327338, -0.00679507479, 0.00199064659,
       -0.00743229687, -0.0103364456, -0.0120913517, -0.0137643944,
       0.00928764511, -0.00152918696, 0.00590877747, -0.00598399248,
       0.0113212625, -0.00800460856, 0.0233053975, 0.0100149801,
       0.00956806634, 0.00280809589, 0.00621419214, 0.0190669075,
       -0.018531261, 0.0311516784, -0.019634597, 0.0125962226,
       -0.00743712485, -0.000589325093, 0.0167399962, 0.0172977205,
       0.0379230082, 0.00741556333, 0.0243055224, -0.00243053748,
       0.0182298385, -0.0065411157, 0.0112367924, 0.000631520874,
       -0.0100333337, 0.0104483422, -0.018738674, 0.026258368,
       -0.0141543886, 0.0172883794, 0.00661334116, 0.00333938235,
       0.0102400212, -0.0105902618, 0.0146373603, -0.000400409626,
       0.01415723, 0.00630636001, 0.0367777087, 0.0184658784,
       0.0126041891, 0.0290407836, 0.0156726427, 0.0214088168,
       0.0101743666, 0.0225762259, -0.00464397902, -0.00107875303,
       -0.0108154584, 0.0190565158, 0.0209293868, 0.000315837329,
       0.00328920991, -0.0142571917, -0.00390764698, -0.0105363503,
       0.000244855182, -0.00899049733, 0.0184590798, 0.0162419621,
       -0.0116453357, -0.00446000649, -0.00650077593, 0.0165641159,
       0.0120426631, 0.0239291042, 0.0147147188, 0.0257008113,
       0.0123362644, -0.00675574085, 0.00111885846, -0.00966973882,
       -0.0117979329, -0.0120794876, 0.00239926763, -0.00159930496,
       0.014113103, 0.0143998582, 0.0136492765, 0.0228841864,
       -0.0198600702, 0.0326546617, -0.00732984161, 0.0382792614,
       0.00918236934, 0.0165578537, -0.025044851, 0.00144314521,
       -0.00428743288, -0.00381011609, 0.0183241256, -0.00450621406,
       -0.00830126181, 0.00436572917, -0.00955618173, 0.0162440445,
       0.00933098141, 0.0371061899, -0.00264176261, 0.0246426724,
       -0.0179669838, 0.0223769583, 0.0130411861, 0.0140157947,
       -0.00935384165, 0.00272341794, -0.00877634343, -0.00208406989,
       0.00596514996, -0.00119948154, -0.00733755575, 0.00322484528,
       -0.0270926412, -0.00172997697, 0.00933179446, 0.00226027635,
       0.000883304921, 0.0206101164, -0.00114665704, 0.000406017236,
       0.0108526694, 0.0181249268, -0.00829828344, 0.00664111599,
       -0.0156821776, -0.00672409916, 0.00660830131, -0.00609940523,
       -0.00966409221, -0.00213160738, 0.00322405947, 0.020516742,
       0.0117596602, -0.000537935644, 0.00125641969, 0.0153508158,
       0.00402711006, 0.00184500823, 0.0081715351, -0.00370665081,
       -0.000402199337, -0.000708817446, -0.0109871374, -0.00552537618,
       -0.00974806212, -0.00605781889, -0.013506203, 0.00916576851,
       -0.0115618557, 0.00424223905, 0.022139011, 0.00691867853,
       0.0187782217, 0.0290469322, 0.0067402008, 0.000435078662,
       0.00931320153, 0.0100131389, 0.0188486706, 0.00555533543,
       -0.0173826441, 0.00599069661, 0.0173717737, -0.00588490162,
       -0.0203429144, 0.00815066136, 0.0297435895, 0.0101878764,
       0.0096095195, -4.00918871e-05, 0.0112743359, 0.0237081926,
       0.0239073075, 0.00936513953, 0.0267230887, 0.00516436948,
       0.0299113691, 0.00850119721, -0.0241637416, -0.00215937616,
       0.00861094054, 0.0127146272, -0.0173641481, 0.0069034812,
       0.0200118218, -0.00970588345, 0.000782440766, -0.012760574,
       -0.0167880002, -0.00156200281, -0.00154134177, -0.0032489174,
       0.00504814554, -0.00230320287, 0.00870113634, 0.00571253197,
       0.00689467555, -0.00255284365, 0.0276230387, 0.0170910507,
       0.0251459368, 0.0230440311, 0.0159115344, -0.0211433936,
       -0.00595297571, -0.0166449267, -0.0153958779, 0.000924423919,
       -0.00147452077, 0.00305382535, 0.000928700436, -0.00936631393,
       -0.00875286479, 0.00566372881, -0.020533409, -0.0151157202,
       -0.00100419775, 0.011975483, -0.00140823959, 0.00142022059,
       -0.00946413819, -0.00139656872, 0.00216366863, -0.000757891277,
       0.000228655539, 0.0308350846, -0.00883540325, 0.00661458075,
       0.00450851955, -0.000322884385, 0.00699702883, -0.014094959,
       0.00599743845, -0.0136210052, 0.0361966677, 0.00085362175,
       0.0365443602, 0.0349234343, 0.0150892176, -0.00180530315,
       -0.000988777028, -0.0139489137, -0.0115106888, -0.00274660299,
       -0.0178299993, 0.00242230901, -0.000441907876, -0.00683128927,
       -0.00136700203, -0.0084715616, -0.00411723508, -0.0170170572,
       -0.00517990673, -0.00907576084, 0.0263235308, 0.0163083337,
       0.000798743044, 0.0101795401, -0.0207812395, 0.00931743626,
       -0.0118301427, 0.0285102446, -0.00828709919, 0.0196165945,
       0.00520342728, 0.00878517702, 0.019402096, -0.0113337543,
       0.0297155622, 0.0111412136, 0.0174216889, 0.00591020426,
       0.0282499529, -0.00236980617, 0.0236898977, -0.00680806767,
       -0.00768445712, 0.0129659278, -0.0092294747, 0.00311241741,
       -0.0136916284, -0.00164142542, 0.00668285601, -0.00657312758,
       0.00700963568, -0.00347684394, 0.020071432, 0.000621494895,
       -0.0102991452, -0.0112410607, 0.0119569702, -0.00689996127,
       0.00493466854, 0.0142666614, -0.0210981499, 0.0128684882,
       0.0105562024, 0.0242894068, 0.00513014616, 0.0224024672,
       -0.0104231192, 0.0170989875, 0.00807275809, -0.018720787,
       0.00634777267, 0.00142699888, 0.00980313495, 0.00449615018,
       0.0050878278, -0.0169509854, 0.013016318, 0.0101259975,
       -0.00666140066, 0.0206522159, 0.00154874241, -0.00283728703,
       -0.0122955013, -0.00136034703, -0.0203757323, 0.0158987753,
       -0.0178635269, -0.0239730552, 0.00978387333, -0.00387821021,
       0.000114235088, 0.00619409606, 0.00309224194, -0.0217552204,
       0.00928736106, 0.0226697382, -0.00189719, 0.0207029618,
       -0.00575249037, 0.0285541508, -0.0115813203, 0.015074526,
       0.00600576773, 0.0193625819, -0.00462309318, -0.00213753781,
       0.00456037046, -0.014163224, 0.00982278585, -0.00444485992,
       -0.00677759806, -0.00137736124, -0.0165241454, 0.0165438894,
       -0.000441353652, 0.0134335225, -0.00768814748, 0.0105338665,
       -0.0116680795, 0.00623674085, -0.00965618622, 0.0104739014,
       -0.00496155582, 0.00303601683, -0.00677160686, -0.0202126503,
       -0.0067588659, -0.00496438192, -0.0155877573, -0.0218856279,
       -0.0163982809, 0.0148800481, 0.0101607768, 0.0178853869,
       0.00174866442, 0.0166366659, 0.00244536181, -0.00388698839,
       -0.00401405478, -0.0058121169, -0.00291619357, 0.000586892711,
       0.00129166502, 0.00113847933, 0.0108259907, -0.00626578694,
       -0.00631372351, 0.00727132987, -0.0056635472, 0.00103891524,
       -0.00481796684, 0.018232327, 0.0024826075, 0.00369831803,
       0.0100812772, -0.00352823129, -0.000938322453, 0.00391551154,
       -0.00659827283, -0.00732391002, 0.00957837328, -0.0112064769,
       -0.0220366828, 0.00189472002, -0.00741404342, 0.00177283899,
       -0.00531878136, 0.00714398641, 0.00774920639, 0.00674498128,
       0.00509577012, 0.0327576287, 0.0101967175, 0.00800032727,
       0.0105056167, 0.00592443813, 0.019175116, -0.000268022472,
       -0.0100798337, 0.000420127704, 0.0206307843, 0.0104048969,
       -0.0149621228, 0.00270087458, 0.00336284377, -0.00459683314,
       0.00195812364, 0.00523992768, -0.00160482712, 0.00672339369,
       0.00661844853, -0.000267601776, 0.00148195866, -0.00964031462,
       -0.00382557302, -0.00570446206, -0.0098507395, 0.0112726539,
       0.00572902337, 0.0137907509, -0.00486486172, -0.00619247602,
       -0.00326780509, 0.00421507331, -0.00399586558, -0.0014295337,
       0.00381319132, 0.0116377277, 0.00201424118, 0.0081572067,
       0.00825441908, 0.00729945954, 0.0123383626, 0.00423794333,
       -0.00682546804, 0.00296607311, -0.00333279488, 0.0105015114,
       0.0283057801, 0.0290604699, 0.00442820601, -0.014028837,
       -0.0210606102, -0.0145535087, 0.00364245684, -0.0150158042,
       0.00159707991, -0.00702017965, -0.00932635088, -0.017609844,
       -0.000668045541, -0.0153635517, -0.00776473666, 0.0109181656,
       -0.0314661562, -0.00624787062, 0.0116021652, 0.0140159037,
       -0.00856277719, 0.00884648226, 0.00168164761, -0.00433477433,
       0.000257240754, 0.00782456994, -0.0134132104, 0.00209683715,
       -0.00151312409, -0.00402862392, 0.00727999536, 0.00552799506,
       0.0235501695, 0.00554351043, 0.0249048192, -0.00746244285,
       0.0205363445, 0.0193374213, 0.00602519326, -0.0121722855,
       -0.00507540395, -0.00657582609, 0.00331316795, -0.00172383583,
       -0.0110988738, 0.0115712034, 0.00726692332, -0.0296689738,
       -0.017333556, -0.0154318083, -0.0114742927, -0.000490728125,
       0.00418945169, -0.000107021559, 0.00994852092, -0.00255913823,
       -0.00993914809, -0.00392770069, -0.00552328397, 0.020212179,
       -0.00215316773, 0.0218993258, -0.00847674999, 0.00819857977,
       0.0128006423, -0.005149337, 0.0278860871, 0.00725100841,
       0.0238071773, -0.00167947344, 0.0254215486, 0.00897906348,
       0.0295742527, 0.00302648474, 0.0179395117, -0.0011712925,
       -0.01551848, -0.00876570307, -0.0095509747, -0.00569599355,
       -0.0163262915, -0.00484308973, -0.00343916193, -0.00857587717,
       0.0137652215, 0.00386455609, 0.00456073694, -0.000628587906,
       -0.008306453, 0.0135692758, -0.00399581902, -0.00482278876,
       0.0055566933, 0.019895738, 0.0149736069, 0.033397425,
       -0.00800384767, 0.00736926077, -0.00297120353, 0.0110505307,
       -0.0148631111, 0.017060617, 0.00917294063, -0.00141927856,
       0.0211997367, -0.00171297928, 0.00732352678, 0.0159091018,
       0.0122480821, -0.00765218167, 0.0153500717, -0.00298633683,
       0.00665301504, 0.015642155, -0.0126603525, -0.00948998518,
       -0.00340769184, -0.0121620046, -0.0134642106, 0.00171198952,
       0.0112891681, 0.0188237634, 0.00831547566, -0.00205187453,
       -0.0190978274, 0.012863664, -0.00776642887, -0.0136931194,
       0.00682143075, 0.02371688, 0.00606176723, 0.0247337297,
       0.000624661567, 0.0172336325, -0.00508960802, 0.0177362375,
       0.00094068714, 0.0269442778, 0.00394805381, -0.00459352136,
       0.00752828503, -0.0089394534, 0.00504196901, -0.00873572938,
       -0.000215377979, -0.0097665675, -0.000540474663, 0.0102194063,
       0.0149067119, 0.00948227569, -0.00712932507, -0.00376441749,
       0.00533812121, 0.00608164119, -0.00215999177, 0.0057745995,
       -0.0192630012, -0.0125034731, 0.00265930104, -0.00226031896,
       -0.0176213011, -0.00318979938, -0.000209926569, 0.000208344456,
       -0.0166749023, -0.00313506019, -0.00669903308, 0.0186765026,
       -0.000874544377, -0.00111893332, 0.00411586836, 0.00740466407,
       0.00605374295, 0.00554465922, -0.00239444734, 0.00149619882,
       0.0210003573, -0.0146270534, 0.00141680532, -0.00717701949,
       0.00331783015, 0.00954160281, 0.00231045461, -0.0184376556,
       0.00166847452, 0.0252401084, 0.00621994538, -0.0177824255,
       0.00271173334, -0.0100320717, -0.0053905407, -0.0113223782,
       -0.00154535531, 0.0118276533, 0.00613421574, -0.012399056,
       -0.0196596496, -0.0128730731, -0.0127781779, -0.0109423809,
       -0.00600189343, 0.0231310017, 0.0212567654, 0.010478734,
       0.00246622181, 0.00401981501, -0.00059083529, 0.00591066293,
       0.00173440471, 0.00334117562, 0.00448130909, 0.00625526998,
       -0.00484183105, 0.0153261172, -0.0229722392, -0.000402277801,
       -0.00757652288, -0.00307566067, 0.00508985762, -0.00601231214,
       0.00572684221, -0.00541955186, -0.000143863668, -0.00446836464,
       -0.00111359486, -0.00762017956, -0.00477971788, -0.00107994815,
       -0.0274779331, -0.00148340187, -0.0213908702, 0.0179243609,
       -0.024759328, 0.00479352102, 0.00736934552, 0.00863652583,
       -0.0135360071, -0.00653721998, -0.0039121802, -0.00382993347,
       0.0107229073, -0.0163929742, 0.00904631056, 0.00863252021,
       -0.000489210419, -0.00990988873, 0.0174026042, 0.0174243506,
       0.0150144678, 0.0223386027, -0.00501648104, 0.0229110084,
       0.00702641672, 0.0280852057, 0.00955460779, -0.0205114614,
       0.00443968084, -0.00171707093, 0.0090646036, -0.0341177173,
       0.000264246744, -0.00801243819, 3.61355997e-05, -0.0188382901,
       0.00146140088, 0.017142076, 0.000238644046, 0.00817624945,
       -0.0220589172, 0.00394263305, -0.0164457075, -0.000214175976,
       -0.011996666, -0.000124118451, -0.00101623242, -0.00637549907,
       0.00716572581, 0.00463707047, 0.00828392152, 0.00896761287,
       0.0175535772, -0.0120830964, 0.00830136891, -0.0228809267,
       -0.0184135474, 0.0012570757, 0.018204011, 0.028690001,
       0.0222210269, 0.0267300978, 0.0147335986, -0.00518290373,
       0.00286589982, -0.0133597609, -0.00148186844, -0.00844269898,
       -0.00209880155, -0.0203927178, -0.00646545738, -0.0129171563,
       -0.00659665419, -0.015010125, -0.0314482115, 0.000391422218,
       -0.0254816189, 0.0206156373, -0.0112295821, 0.00210971967,
       -0.00922076032, 0.0259325001, -0.0171484854, -0.0122681065,
       -0.00556847081, 0.00587595254, 0.00437870855, 0.00364895398,
       0.00490694027, 0.0193336867, 0.034749534, -0.00161822711,
       -0.00963531993, 0.0165584106, 0.0104682054, 0.0101109874,
       -0.00867548864, 0.0040776208, 0.0272279568, -0.00617770106,
       -0.0199019928, -0.0252050292, -0.00262021483, -0.0179311782,
       0.000267337193, -0.0180081017, -0.0134450598, -0.0137345027,
       0.00205765944, -0.0124012418, -0.0162140336, 0.0220801011,
       -0.0272262003, 0.00647786958, -0.0156681631, -0.00709205121,
       0.00319049391, 0.00758706825, 0.0158067215, 0.00879265275,
       0.0125918081, 0.0104216458, 0.00394637324, -0.0194135085,
       -0.00564701762, 0.0110241324, 0.0106666917, 0.00871989317,
       0.011281536, 0.0151877757, -0.00318136299, 0.0281309076,
       -0.00577613851, 0.0036606288, 0.0145244962, -0.000913035125,
       -0.00754930545, -0.0217346698, 0.00331286015, -0.0160882566,
       0.00822938047, -0.00972457789, 0.00122040976, 0.00382576603,
       -0.00475079473, -0.00549817178, -0.0122504244, 0.015894169,
       -0.0109924125, 0.0213403646, -0.0168808736, 0.000450341147,
       -0.00106579158, -0.00442307256, -0.00282478984, -0.00597203104,
       0.000310836389, 0.00265227817, 0.0143572204, 0.0129730776,
       0.00247429567, 0.0040827794, -0.013019193, -0.00891932473,
       0.0107475603, -0.00293359254, -0.00197643321, 0.00399189023,
       -0.00515885884, -0.000603227294, -0.0100333374, -0.00616600877,
       -0.0139158154, -0.0112797441, 0.0129304295, -0.000784587581,
       0.0147258285, 0.000441511365, 0.00666196132, 0.00580053078,
       -0.00391049543, 0.00331899989, -0.00958903413, 0.0101833288,
       -0.0116349775, 0.00461389404, -0.0135192173, -0.00930712186,
       -0.00445228582, -0.00558586325, 0.0117385611, 0.0226870235,
       -9.12127944e-05, 0.00298101641, 0.011853029, -0.0155028673,
       -0.00103797251, -0.000552216545, -0.0102966707, 0.00973527227,
       0.00999093615, -0.0102590434, 0.00492739771, 0.00208417,
       -0.0226539467, -0.00854410138, -0.00887836702, -0.00669530174,
       0.00589922164, 0.000826772244, 0.0141375847, -0.0023929195,
       0.0167037658, -0.0161601901, -0.0109935245, -0.0072462894,
       -0.01318039, -0.0101690358, -0.0104703084, 0.000105488194,
       -0.0127578042, 0.00653734989, -0.0279101823, -0.0121897608,
       -0.00695176702, 0.0151529973, 0.0251767375, 0.0209204927,
       0.00643468974, 0.0139918961, 0.0137669686, -0.00532953627,
       0.00301395287, 0.0138800824, -0.0138048436, 0.00078685442,
       -0.0175696611, 0.0159574151, 0.000129259541, 0.00592722185,
       0.0141680529, 0.010546389, -0.0154542681, -0.00640498241,
       -0.00601266045, -0.00285244943, 0.00189125969, -0.0087444121,
       0.0164545644, -0.00780686829, -0.00181814842, -9.02226602e-05,
       -0.0136232944, -0.00678057969, -0.0153732644, 0.00918615051,
       -0.027863076, 0.00361799961, 0.00299078762, 0.000380038749,
       -0.0179922916, -1.16911697 ]
